fun -0.4276 3.5564 0.7520 1.8486 1.1666 0.0091 -0.6108 0.2100 -0.1851 0.0307
name 1.8823 -1.2216 -0.0534 0.2346 -0.3643 -0.4528 -0.5294 1.5716 0.1462 -0.2192
to -0.6891 -1.3002 -1.4461 1.8105 -0.0536 -0.4803 -0.5296 -1.1027 0.1022 0.1212
code 0.6624 0.5328 1.4364 0.6023 -0.0859 0.5694 0.4445 0.7199 -1.5484 0.4485
kernel -0.2797 -0.1501 -0.3461 1.4989 -0.5770 0.7607 -1.8415 1.6957 0.0976 -0.8668
and 0.0433 -1.3798 1.4192 -0.0877 -0.8819 -1.5161 -0.2420 -0.9039 -1.4644 0.4515
i -0.8793 0.5216 0.0601 1.1451 0.3341 -1.1095 -0.4053 -1.3075 0.0168 -0.8855
hi -0.8175 1.0549 -0.6513 -0.7066 0.3585 1.7039 -0.3447 2.0376 -0.9316 0.5225
like -0.2493 1.3552 0.1320 0.3615 -0.1587 -1.0758 1.4864 -1.1063 -0.3610 -1.5791
machine -0.0495 1.1411 0.4307 -0.2800 0.6557 -1.1278 0.2122 -0.5207 0.6766 0.5160
learning 0.9975 -0.9659 -0.7057 -0.8637 0.4307 -1.4510 -0.7680 1.0412 1.2192 -0.0567
my 0.3511 1.1491 -1.0429 0.6937 0.9569 -1.4878 0.0329 -0.4594 0.8482 0.2311
is -1.1594 1.7638 1.4759 -0.4677 -0.9341 -0.0863 0.9925 0.2005 0.7435 -1.1193
python 0.2755 0.8541 -0.3448 0.5087 0.0692 0.3405 -0.1166 0.9681 0.1008 0.1897
