hi 2.2492 0.3381 0.0564 1.5779 -0.9263 -0.5041 -0.3247 0.0647 2.2022 0.5641
i 0.7477 -0.3646 1.1053 -1.2320 0.2759 0.3550 -0.8577 -0.4978 0.3237 0.3104
is 2.1002 -0.2959 -1.6038 -0.2895 -1.2365 0.5191 1.1896 -0.1977 1.5795 0.3392
kernel 0.6515 1.0571 -0.8821 1.6548 0.5725 -0.8125 0.5053 0.3984 1.7564 0.1665
fun 0.2092 0.3086 2.1109 0.4226 0.1673 0.9114 -0.8913 1.0427 -2.3370 -0.7237
name -0.7143 -0.9204 1.3673 0.3180 1.6012 -0.1465 -0.6805 -0.7360 0.0521 0.6973
to -1.3577 -0.8527 -0.8587 0.9424 1.8561 -0.5320 -0.4058 0.9833 -0.5181 1.5858
machine -0.9348 0.2591 1.0004 -0.1012 -0.5423 -0.6256 0.3709 -0.5981 0.4185 -0.1190
python 0.3436 -0.2234 -0.7836 0.1333 0.1076 0.1276 0.1298 -0.7850 -0.2275 0.2474
code 0.5669 0.6049 0.3364 1.1259 -1.3823 1.8732 1.1481 -0.2859 0.0873 -0.3966
and -1.4894 0.2540 -0.8857 1.4545 -0.4020 0.8537 1.5005 -0.8960 1.1038 0.8929
learning 1.6907 0.1572 0.1540 0.2506 1.8273 0.5956 0.3999 -0.0806 1.6480 0.9067
my -1.7778 -1.0949 -0.7358 0.4643 -0.5731 -1.1683 -0.7535 0.7672 -0.8913 0.8734
like 0.0563 0.6689 0.1768 -0.2035 -0.8916 -1.5923 1.6183 -0.1568 -1.0431 -1.7580
<UNK> 0.7336 -0.1054 1.4791 1.6289 -0.0497 0.0656 -0.1543 -0.0322 0.0399 2.8373
