code 0.1279 1.1304 2.4104 0.3270 0.0214 -0.0827 0.6588 0.5892 -0.5288 0.5925
is 0.0771 0.3469 0.0269 0.3903 -0.0977 1.1263 -1.0040 0.1187 0.7087 1.9636
name -0.7581 -0.8785 -1.2698 -0.7285 0.6965 -0.1308 0.1736 1.1673 0.3323 0.0618
machine -0.3862 0.1564 0.6210 0.6280 -1.5755 -0.6544 -1.4558 -0.5512 -0.2451 1.4260
to -0.6190 1.0235 0.8289 -0.8551 0.8101 -0.9164 0.4228 0.3181 -1.3176 0.7803
python 0.8872 -0.7318 -0.3417 -1.7259 1.1074 0.6459 -1.3812 2.1964 0.0739 -0.8357
fun -0.2549 -2.2397 -0.5444 0.1345 1.4611 0.5169 0.9040 0.6243 -2.8277 0.3662
and -0.2853 -0.1926 0.4232 1.0546 -0.5778 -1.8356 -0.8988 1.1681 0.5527 -0.6573
i 0.5136 -0.8944 0.1687 0.2108 0.3636 1.5604 0.3200 -0.0297 1.4782 -0.4195
like -0.7900 -0.0360 0.5623 0.6775 0.0359 -1.3243 0.6229 0.5618 0.4231 0.6049
kernel -1.8061 0.7109 -0.7622 -1.1169 0.2223 -0.3913 0.3580 0.8463 0.1209 -0.5011
learning 0.7787 -0.1418 0.8661 0.9899 0.4678 1.0588 1.4026 -1.5359 0.0257 -0.0592
my -1.1331 -0.2792 0.6679 -0.5933 -1.8300 1.0603 -1.2500 -2.2052 0.5925 0.9355
hi -1.1008 -0.5135 1.2218 -0.3472 -0.5076 -0.8677 -1.3662 1.5130 0.5851 0.0784
