my -1.2639 0.1870 1.2547 0.7024 -0.7170 0.1299 0.3772 -0.9567 -0.5236 -0.5783 -0.3408 1.6970 0.8347 -0.5815 -0.2695 0.3025 0.0249 2.6002 1.3242 0.6477 -1.2271 -0.5922 1.5101 0.1303 0.3411 1.2526 0.0609 2.2643 -0.4922 0.6639 0.4786 -0.1771 -1.0082 0.3520 -0.2224 2.0563 -1.3962 0.6416 0.3338 0.9410 0.6560 0.1939 0.0566 0.2395 0.9252 -0.5365 1.2749 1.0061 -0.1946 -0.9062 1.6249 1.5094 -0.8901 -0.7282 1.2695 0.5939 0.0486 -1.3254 -0.4910 -1.1396 -0.5136 1.5481 -2.1951 0.8505 0.4988 1.1721 0.5152 -0.7834 -0.5578 1.0236 0.5810 -1.0613 0.2987 1.5067 1.9257 -1.2631 0.3330 0.2587 -0.6129 -0.3701 -1.5831 0.8812 0.1993 1.5858 -0.2641 -0.4881 -0.3120 -1.0763 1.2826 -0.6066 -0.7795 0.3799 -1.3634 -0.7274 0.9323 -1.2555 -1.0140 0.5131 0.3691 1.0337 0.3371 -0.7787 0.9046 0.3239 1.7525 0.2268 -1.1926 0.4065 -0.7788 -0.1407 -0.3381 -2.1448 -0.1102 -1.2674 0.1528 -0.9238 -0.1540 0.0288 1.6063 0.5275 0.8621 0.5139 -0.6535 1.4993 -0.8433 -0.4992 -0.7665 -1.2829
to 0.5066 0.9310 0.7883 0.0594 -0.0806 -0.4304 -1.8484 -1.8253 -1.1264 0.3347 0.4267 -0.2776 1.0957 0.6670 -1.5886 0.7488 1.0829 0.9351 -0.4459 -0.5983 0.8636 -0.8253 0.6957 -0.7578 0.0176 0.6751 -0.7518 0.2319 0.9234 -0.2075 0.7900 1.4514 -0.2671 -0.0199 -0.3955 0.4501 -0.8951 1.0634 0.7449 -0.8606 0.5184 -0.4731 -1.4982 -1.0095 0.5835 -0.2987 1.7645 -0.3657 2.0746 1.6944 0.1769 0.8082 0.8596 -0.5146 -1.6694 -1.1528 1.8122 -0.1477 0.1187 0.9732 0.5670 -1.0522 0.5288 -0.8935 0.8505 1.1606 1.0895 0.1423 1.9524 0.4006 -2.1913 0.6039 -0.4807 -0.4715 0.2209 -1.6768 -0.9738 -2.2852 -0.8914 -1.2020 -0.5795 0.3953 -0.8519 0.2082 1.6579 -2.1397 -0.7714 0.4278 0.1516 0.1911 -0.7451 0.3659 0.8021 1.5342 -0.5095 -0.3641 -0.0489 -1.4848 0.7405 -1.7879 -0.0505 0.0025 -0.1613 -0.1994 -0.1784 1.7793 1.3666 -1.4500 -0.3589 0.6016 -0.3903 -0.5879 1.8568 2.2113 1.1008 -0.9843 -0.1127 -0.9400 0.2582 0.6810 2.8737 0.2862 0.4863 -0.0765 0.3136 1.0272 -1.0139 0.0076
i -0.7290 -0.0798 0.9228 -1.7852 0.7157 -0.9792 -1.3579 -0.8684 0.3436 -0.0897 -1.2409 -0.8854 1.1422 1.0572 0.2604 -0.9973 -1.4951 -1.5153 -0.2003 0.0021 1.7576 1.5136 0.2916 1.0351 0.9818 -1.2806 1.6890 1.8878 -0.0258 -0.1280 0.9471 -0.9579 1.0497 -0.4697 1.0279 0.7867 0.4959 0.3298 -0.9694 1.9885 -2.8799 -0.9450 1.1360 -0.7500 0.1929 -0.7506 -0.0358 1.1947 0.5871 2.4457 0.4474 -0.3628 -0.0646 -1.8389 -0.3947 -1.1638 -0.1533 0.4480 0.7516 0.7760 -0.8295 0.1047 -0.3754 0.4707 -0.8547 0.2206 -0.5176 -1.9621 -0.6751 -0.3985 0.2310 0.2521 -0.5777 -0.3717 0.9518 -0.8601 1.0245 1.0322 -1.8372 -0.4802 -1.6861 -0.3142 0.5844 -0.5622 0.3082 -0.9286 1.2422 -0.3692 -0.5413 -1.2634 0.5216 0.0949 -0.7911 0.1531 -1.7599 -2.5127 0.4419 2.7611 1.1324 1.2735 0.2732 0.3115 0.1153 -0.7653 -0.3209 -0.5086 0.2244 0.5502 -0.8351 -1.0165 1.8666 0.1460 0.0395 0.5641 -0.6012 -1.0258 1.6904 1.6471 -0.0822 -1.3932 -1.4373 1.5836 0.2786 0.6139 -0.4769 1.5088 -1.6070 -1.7192
name -0.1973 -1.0422 -1.1849 0.0426 0.5294 0.0654 0.3816 -0.4828 0.6288 -0.2671 -0.6817 0.8449 0.3799 2.4944 1.8451 -0.9834 -0.6739 -0.2942 0.8906 1.4273 0.5596 -1.2762 -0.3794 -0.8029 0.0242 0.5893 0.0362 -0.0111 0.3583 -0.8300 -0.1482 -0.3509 0.2126 0.8807 0.1729 1.0720 0.7387 -0.7542 -0.1102 0.2231 -0.6421 -0.5028 -0.7633 1.6045 -1.1282 -0.2092 1.2591 0.1967 -0.5081 0.4645 0.5107 0.7125 -0.1768 -1.1682 -1.0144 -0.4197 -1.1317 -0.6546 0.8679 -2.3053 0.7040 0.0464 -0.0493 -0.3513 -0.9172 -1.3518 0.4667 -1.5076 -2.7480 -0.9926 -0.2855 0.1527 0.6408 -0.5932 0.2674 0.4336 -0.1787 -1.3919 1.1606 -0.0327 -0.8997 -1.6370 -0.0198 -1.2781 -0.5357 -1.2904 0.1843 -0.1493 -0.5828 0.3638 -0.1962 0.2557 -1.7191 -1.5721 1.5778 -0.9080 0.4514 0.8186 -0.2753 0.4760 -1.1504 1.3816 -0.0133 0.2088 0.9809 0.0483 -0.8782 -1.2095 0.3108 -0.1513 -0.0758 -0.1344 -0.4664 -0.8909 1.3347 0.7447 1.2253 1.7965 0.3817 0.0222 -1.4939 -0.4379 0.3705 -0.0512 1.3540 -0.0265 0.2035 0.2253
learning -0.2322 -0.6520 1.4393 -0.7987 -1.3754 -0.2810 1.8510 -2.7064 1.2953 0.4557 -0.2940 0.3308 1.2741 -2.0075 0.0297 -0.3512 0.7188 -1.1000 -0.2974 0.8235 0.7929 0.7553 0.7101 1.2686 -0.1399 -0.9989 -0.5829 -1.1625 1.0728 -0.3013 -0.8888 0.6364 0.3643 0.2571 2.8190 -0.5069 -0.1971 0.2598 -0.6548 0.4275 1.6233 -0.4103 -0.0075 -0.0003 -0.0429 0.2781 -0.2929 -1.0870 -0.5585 1.9569 0.2632 0.1001 -0.3302 0.3291 -0.7770 1.0661 0.3682 -0.7586 -1.3242 1.1938 0.0091 0.7263 -1.1963 0.4078 -0.4744 0.8590 -1.5393 0.1215 1.2377 -0.9298 -0.4302 1.3028 1.0147 1.0575 1.6826 0.9942 -1.2307 -1.6381 1.7264 -0.0307 0.3553 -1.4927 0.3343 0.1657 -0.5054 1.1622 -0.4202 0.9633 2.5098 -0.3279 -1.1479 -0.3493 -0.9203 1.5339 0.3012 0.6061 -1.9766 0.7672 0.0914 -0.3860 0.0636 0.2826 1.0402 0.7248 1.1953 -0.1932 -1.1009 1.6523 1.7653 -0.7776 -0.7653 -0.7771 -0.5657 0.5682 -0.1565 0.2601 -0.2123 0.3212 0.3105 0.6775 -0.1220 -0.4905 0.6504 -1.9834 -0.6952 -1.1335 0.0214 -1.0579
king 0.2157 0.6815 1.1868 0.6574 0.7279 0.4034 1.0283 1.9190 0.0849 -0.1090 0.9156 0.9988 0.5183 -0.1985 -0.2243 -0.3899 0.7653 -0.2468 -0.2240 -0.6467 1.7085 -0.2234 -0.3996 -0.4781 -0.8804 -2.0634 -1.1947 -1.2341 0.6318 1.2879 -0.6231 -0.3797 -0.2240 1.1757 0.3025 -0.3568 0.5993 -0.9472 -1.1211 0.5980 -0.5401 0.2777 -0.1305 -0.2819 -0.8949 -0.1308 -0.7151 0.1459 0.3620 -0.5301 0.4031 0.5124 -0.8127 -0.7948 -1.2350 -0.1417 -1.8027 1.1966 -0.1590 0.3754 1.9191 0.6429 0.4361 1.0931 1.2779 0.0821 -0.5690 -0.5602 1.1603 0.6084 -0.4981 -1.1917 1.4768 1.1779 1.0097 1.4712 -0.2700 -0.5699 -1.7589 2.0700 -0.1327 -0.2217 -0.3065 -0.8195 0.7403 0.1160 -0.1040 0.1067 0.7501 -1.5950 2.5815 0.7526 -0.2621 -0.5901 0.0059 -0.3066 1.4863 0.8269 0.7654 -0.9341 0.0262 -1.2424 0.6209 -0.3551 0.1818 -0.4175 -0.0541 0.1824 -1.8467 -0.5891 0.6445 -0.1324 1.5520 0.5790 -0.4246 1.7348 -0.1855 -0.1454 0.4407 0.2249 -0.5611 -0.9908 1.1565 1.7163 -0.1239 0.8423 -1.1160 1.0015
is -1.7286 1.3302 -0.3325 -0.3510 -0.3527 0.9457 -0.8944 1.1631 -0.1031 0.4612 0.1461 1.0639 0.6694 -0.3926 -1.0579 0.0764 -0.1310 -1.2392 -0.3304 -0.9282 -1.3742 -0.4835 0.3264 0.7467 -1.3205 -0.5257 -0.4880 0.2832 1.5840 -1.3323 -0.3850 -2.1696 -0.7815 -0.9066 0.7918 -0.4219 0.3112 -2.0053 -1.4689 1.9035 2.0289 0.9194 0.8944 0.8268 -0.1944 -0.1362 2.5576 1.0335 0.9812 -1.5594 -0.8930 -0.4563 0.0273 -0.1560 -1.9176 -1.1146 -0.4996 -0.6923 0.8098 -1.0439 -0.0669 2.0596 1.3043 0.9282 -1.4717 1.7365 0.0438 -0.6778 0.4653 1.0273 0.3589 0.7149 0.4147 -0.2888 0.5302 0.1785 -0.8410 -0.3258 0.0154 0.3162 -1.5550 -1.1214 1.1234 1.4855 -1.5908 1.8670 0.6950 0.1255 1.5287 1.8015 -1.6351 0.7644 -0.3532 1.6507 1.1988 -0.2664 -0.9654 0.1684 -0.1184 -0.5191 0.3796 -1.4986 0.1382 -0.9962 1.0315 -0.2126 0.4945 0.1889 -1.0380 1.0465 -0.2310 -0.5756 -1.2379 -1.9869 -0.9146 -0.3482 -1.5798 -1.6766 -1.9889 -0.5275 0.6653 -1.2722 -2.1555 -0.4812 -0.4084 -0.3910 -1.2175 -1.3686
queen 0.6870 0.1561 -0.7628 -1.0987 1.8721 -1.3886 1.3737 0.5123 -0.0143 -0.4848 0.3782 -0.0205 -1.1532 -1.2223 1.1781 3.0783 0.4478 0.1102 0.8379 0.6918 -0.2445 -0.2406 -1.5465 -0.5393 -0.3609 0.3112 1.5047 1.5889 -0.3723 -1.1186 0.2052 -1.7656 0.2848 -2.5349 0.0801 -1.5769 0.4868 -0.2011 -0.0789 -1.1813 -0.0653 -1.0577 -0.8188 -3.2158 0.3894 0.1697 0.9769 1.0973 -0.2476 0.3851 0.7816 0.1518 -0.3234 -0.7859 0.8294 0.2344 1.0730 0.8770 0.1977 -0.9283 -0.1783 1.1491 0.4231 0.4423 0.9075 0.4041 -0.7288 -1.2380 1.6671 -0.4198 -1.6512 0.6193 -0.3650 -0.4377 0.8765 0.7319 0.3994 -1.2021 1.5834 0.3679 0.8789 2.3544 -0.5342 1.5122 -0.0563 0.0659 0.1647 1.6034 1.2321 -0.1655 -0.3014 -0.1493 -0.7951 0.6232 0.4550 -0.5384 -0.1055 -1.1668 1.0809 -0.3631 -0.3116 -0.3648 -0.7400 0.1104 0.8370 -0.6908 1.8489 1.3572 -0.7017 0.9113 0.3133 0.1043 -0.4902 1.0087 0.6258 -0.9076 1.1472 -0.7792 -0.5218 0.9786 -1.8726 -0.4363 -0.0548 -1.2406 -0.0887 -1.9741 -0.7370 -1.9991
cat 0.6761 -0.7712 -1.0270 0.2615 0.0613 0.2204 -1.4541 -0.7696 -0.3227 0.4965 0.8296 -0.4440 0.7994 -0.6339 0.5648 0.1126 0.1236 1.2186 0.8295 0.4799 0.3884 -0.5570 -0.6426 -0.8245 -0.3463 -1.3336 -0.9890 -0.7949 -2.3551 -0.4181 0.3896 0.1598 1.2283 -1.0381 0.2981 -0.9064 -1.3848 1.1320 0.5769 0.0317 0.5410 -0.2776 -1.2409 0.4062 0.0488 0.7616 -1.1242 -1.6733 -1.4417 -0.3372 -2.2734 0.2576 -1.5635 -1.0931 -0.6553 -0.9773 0.0344 0.6415 -1.2494 -0.4769 1.4162 -0.2588 -1.0198 -0.3785 2.0363 -0.6151 1.2710 -0.9854 -0.4698 -0.6320 1.2124 0.2688 -0.9495 0.9617 -0.7211 1.1177 -1.4015 -0.8099 -1.1916 -2.2060 -1.1308 0.3262 0.4538 -0.0853 0.8018 -0.7514 0.8429 -0.0929 0.6000 -1.0896 0.9195 -0.8953 -0.9545 1.6221 -1.4896 1.4913 0.4753 0.9240 -1.5319 0.0982 -0.2447 0.2080 -0.1908 2.2325 -0.3931 1.1386 -1.5381 0.4856 -0.1223 -0.0270 -0.6830 -0.9779 1.6710 0.1502 -0.2287 1.2615 -2.2579 -0.3089 1.2337 -0.1301 1.2452 -1.2282 1.0573 -1.3234 1.8662 0.9524 -0.1301 -0.1773
code -2.0555 -0.5164 1.6294 -0.0916 0.3108 0.0746 0.1562 -0.8073 -1.1983 1.9402 0.6428 -0.6974 -0.1530 -1.9500 0.4115 -0.7632 1.2983 -0.0815 0.4773 -2.2727 -0.4300 -1.5975 1.1267 -0.5781 0.2664 -1.5850 -0.4966 -0.9040 1.1396 -2.1342 0.8499 -0.5163 0.8583 -1.2294 1.0301 0.0789 -0.5737 -0.3108 2.3247 0.2662 -0.5994 0.1098 -0.1419 -0.8485 -2.1813 0.3711 -0.1284 0.0970 1.3240 -1.3311 -1.4037 0.5873 0.8213 -0.2120 -0.7662 -1.3323 0.5721 -1.2051 1.0325 1.1899 -1.4358 -0.4504 0.2888 0.1589 0.4977 0.4021 -0.9023 1.9179 0.5110 0.0946 0.2129 0.9327 0.0307 -1.7856 0.6947 -1.6038 -1.4221 0.5241 -0.2138 -0.7354 -1.0713 0.4481 -0.0305 -0.8740 -0.1376 0.8430 -1.0862 -0.0535 1.0000 1.4395 -0.3604 -0.7487 0.6991 0.2389 2.5873 0.7285 0.3024 -0.5240 -1.2550 0.7750 -0.1495 0.6527 1.1603 -1.5346 0.0818 -1.0493 0.8277 -0.2430 -0.0599 -0.0660 -1.3112 0.0542 -1.8618 1.8222 -0.0890 0.7281 -0.0641 0.4667 -0.1601 -2.0529 0.8690 -1.5485 -0.8408 -0.1641 -0.6170 -0.1166 0.2041 1.0161
python 0.3362 1.3648 1.4817 -1.3376 -1.2397 -0.0307 -0.0624 0.4297 0.2462 -0.8541 1.5311 -0.7573 -1.8069 -0.6984 0.5520 -1.3854 -1.4451 -0.1828 -0.1753 -1.1151 0.1121 -0.7857 1.3800 2.2772 0.8511 0.0990 -0.2135 0.2723 1.1424 0.2912 2.0599 -2.0603 -0.7526 0.2435 -1.6045 -0.2682 -0.6141 -0.3694 0.1994 0.7582 0.0626 1.3354 1.9498 -0.2340 -2.0640 0.0339 0.6491 0.6777 -1.4706 1.7712 -0.1534 -0.2368 -0.5022 -1.2128 -0.0572 0.1966 -0.1994 -0.1329 1.4285 0.3693 0.2293 0.2711 2.1728 -0.2277 1.3837 0.4773 0.2717 -1.3563 2.2795 -0.9232 -0.5443 -0.4525 1.0033 0.6846 -0.4094 -0.3387 -0.0414 -0.1140 0.7796 0.9465 0.1540 -0.4922 0.4251 -0.0965 -0.3118 -0.4589 -1.7179 -1.0385 1.9507 0.2534 0.1089 -1.3777 0.4780 0.3981 1.2061 -0.1907 -1.0621 -0.0689 -0.1435 1.6477 -1.0181 -0.9708 0.3446 -0.0016 -0.5433 -0.0534 0.7026 -0.1041 -0.0850 -0.5318 -0.6761 -1.2357 -0.7059 1.9216 1.4676 -0.1889 -0.6174 -0.0928 1.2445 -1.4313 0.3166 -0.8317 -1.9355 0.1134 0.4434 -0.4941 0.0046 -2.2017
and -0.7582 1.5988 -0.1991 -0.0318 1.0336 -1.4050 0.0235 -0.0631 0.8346 -0.7270 0.7053 -1.3092 -0.6567 -0.4287 -1.5954 0.3446 -0.6214 2.3583 1.2793 -0.3180 1.0355 -1.4925 0.0053 -0.3983 -1.4006 -0.4843 -0.9206 0.5483 0.4753 -0.7516 0.8114 1.3531 -0.4786 -1.4519 -1.0536 -0.7665 -1.2139 -1.6852 0.3249 -0.1606 0.9299 0.5507 -0.5249 1.9313 -0.5301 -1.5767 -0.2656 1.4483 1.2841 0.0832 -1.1377 0.7901 2.3631 -0.5340 0.3688 0.1836 -0.8373 -2.5613 -1.7041 -0.7839 -0.6405 -1.0909 -0.4048 0.6213 -0.7931 -1.3685 -0.4407 0.5086 0.2236 1.8120 2.5381 0.9739 0.1258 -0.7445 0.1954 -2.6589 0.1093 -2.8411 -0.5008 -0.9736 -1.2340 1.2466 0.5665 0.5237 -1.1881 -0.3066 -0.3336 -0.4585 -0.4706 1.3470 -0.0629 -0.5237 0.3691 0.4343 0.1529 -1.1658 0.2388 -0.5429 0.6368 -0.5211 1.2458 -1.1735 0.5235 0.5223 -0.4006 -1.6334 1.0433 -0.6820 0.8257 0.1418 -1.5447 -1.7403 1.8144 -0.5451 0.6290 -1.3938 0.3070 -0.1958 -0.3108 1.0733 1.2699 0.3665 -0.8590 -0.9663 0.5683 0.2747 -1.2525 1.2334
woman 0.2101 -2.0058 -0.1566 0.5396 0.4196 0.1417 0.1210 1.5961 0.5842 -0.0114 0.9543 0.8863 -1.6844 0.0975 0.0604 -0.2194 0.8446 1.1279 0.4314 2.3681 1.3096 0.9233 -0.1903 1.9489 -0.5376 -0.8022 0.3955 -0.7527 0.4934 -0.1220 0.0657 1.2863 0.1828 0.3236 1.5703 -1.3932 -0.9700 1.1249 1.5987 0.7296 1.1567 0.8891 -1.0015 0.7521 1.7380 -1.2702 -1.8273 -0.4975 -1.0088 0.0033 -0.2643 -0.6950 -0.3448 1.4338 0.0175 -0.5346 -2.1819 -0.8118 -0.2716 -0.7869 -0.0409 0.0812 -0.6629 -0.4664 -1.3025 1.0097 -0.0427 1.6156 0.5151 0.1748 -0.4748 0.9255 0.6029 1.7195 1.6802 0.7620 0.1447 -0.6673 -1.8703 0.6079 0.8436 -0.4065 0.2752 -1.5308 -2.2127 -0.8568 -0.1407 0.9684 -0.3729 1.0556 -1.4014 0.1420 0.1585 -0.5845 0.3050 -0.0497 -0.1400 0.4910 -0.0338 0.3892 -1.9702 0.5809 -1.7558 -0.3714 0.1934 -1.7251 -0.0322 0.0004 0.0904 0.3229 1.8927 -1.8163 1.9768 -2.2946 0.4273 -1.0457 0.5764 -2.2278 -2.1079 0.4190 -1.1392 -1.0205 0.1798 0.3945 0.7465 -0.6347 1.0028 0.8801
hi -0.6758 -1.3120 -0.4705 0.5577 -1.5302 -0.8029 0.5439 0.6019 1.9271 -0.3826 1.4406 0.6167 -1.1656 -0.8363 -0.3023 0.8522 -0.0104 -0.1031 0.4182 -0.0489 0.4631 -0.7732 -0.8844 -0.2513 -0.1175 -1.3269 0.8042 0.6035 -0.1818 -0.5066 -0.7956 -0.7360 -2.5937 -0.4446 0.1491 0.3144 0.4751 -0.8514 -0.5973 0.2450 0.2996 -0.6001 -0.5558 -1.9146 -0.6423 1.0146 -0.0591 0.2459 -0.0259 -0.4755 -0.1615 -1.5615 -0.1281 1.2630 -0.0468 -0.1126 -0.0228 0.1745 -0.8075 -2.2400 -0.2461 1.2464 -1.2091 0.5439 1.0557 -1.3122 0.2866 0.2953 0.0728 1.3280 1.0026 -2.0877 -1.1363 -1.1194 1.0343 -2.9890 -1.2236 0.2587 0.3016 -0.5398 -0.1905 -1.2186 -0.2996 0.6369 -0.3207 2.4547 -0.0129 -1.2076 0.5400 -0.2251 -1.2830 -0.7237 -0.8201 -1.0571 0.1117 -1.3543 -0.5170 -0.3701 0.1662 -0.1225 0.1791 -0.8035 0.9491 -1.0988 0.2918 -0.4611 0.3963 0.6667 -0.5557 0.2043 -1.2159 2.9360 1.8633 0.5479 -1.2356 -0.3939 -1.4436 -1.0824 0.0623 -1.1220 0.0894 -0.8692 -3.9080 1.2075 -0.9538 0.8903 -0.2077 0.6449
like 0.0201 1.1490 1.1187 0.0661 0.5840 -1.1152 -2.1701 0.7499 -0.0953 -0.2494 1.7908 -1.1526 0.5666 -0.9541 0.9977 0.9534 -1.2379 -0.7708 -1.6737 0.4484 1.1639 -0.5360 0.1601 1.0009 -1.8980 0.2826 1.0860 0.2535 -0.8705 -0.3239 -1.3075 -0.3544 1.5251 -0.1476 -1.6451 1.1448 0.1075 -0.1275 -0.0592 0.6672 -1.3243 -1.5493 0.5116 -0.9949 0.1229 0.4183 0.0033 1.5836 0.7087 -1.0492 0.4903 1.2601 -1.6216 -1.5788 -0.8981 0.5531 1.2121 -0.8081 1.3094 -1.0192 -0.4542 -0.0940 0.5818 1.9363 1.4526 0.1064 -0.4221 0.2945 -0.9068 -0.7919 1.2375 1.9857 -1.5589 -0.5525 -0.0410 -1.3194 0.1706 0.1350 -1.1532 0.2624 1.4596 -0.2615 -1.1621 0.3832 -0.0354 0.8916 0.7725 -0.7424 -0.0974 0.2396 0.0677 1.0595 0.0064 1.4077 0.5081 -2.5440 0.3108 -1.2267 0.6150 0.0268 -1.3931 -0.2171 0.5103 0.3682 -1.1035 -1.9902 -0.6776 0.4883 -0.1253 0.5776 -0.9717 -0.3371 -0.3185 0.1113 0.9176 -0.1266 0.5858 0.2110 0.0317 -2.4159 -2.0099 1.8536 -1.7638 -0.7853 1.4084 -0.1728 -1.1763 0.9972
fun -0.2321 0.3016 -0.1250 -1.8216 0.7460 -0.3989 0.6041 -1.3579 0.6401 1.3461 0.1464 0.5979 -0.5802 -1.7906 -0.7676 0.6812 -0.3124 -0.5552 -0.3898 -2.1132 -0.7718 -0.4530 -0.0189 -0.5335 0.1185 0.5766 0.7827 -0.5051 -0.5203 0.7576 -1.9982 -0.8961 -0.0485 1.8526 1.3816 1.0000 -0.0420 -0.7260 -0.5929 -0.4292 -1.6107 0.6816 1.1652 0.4587 -0.7859 1.3713 0.0478 0.7651 -0.5163 0.8324 1.2436 1.5559 1.8596 0.6872 -0.6182 2.0790 0.8240 -0.4167 -2.2953 0.5702 1.2477 0.4678 1.6652 -0.3310 1.6441 0.1567 1.2851 -0.3551 1.1250 0.9570 -0.5970 -0.2901 -0.9863 -0.6292 0.6708 -0.7296 -0.9754 -0.2259 0.4221 1.9531 -1.2994 2.0721 -0.0115 0.7037 -0.0265 -0.5165 0.8579 0.2784 -0.6960 0.4170 -0.9936 0.0776 0.8832 -1.0949 0.2322 0.2212 0.6748 -0.3603 -0.3623 -0.5675 -0.2159 -0.3180 -0.7669 -0.0700 -0.1582 2.1226 1.6165 -1.7418 1.8587 0.5712 0.2189 -0.3639 2.9650 0.1962 0.8649 0.0408 -0.4750 -0.6689 -3.3678 0.4389 1.0821 -0.1239 -0.6710 -0.7111 0.9169 0.0210 -1.2299 -0.2041
machine -0.2436 0.8844 0.9395 -0.7084 -0.0363 0.8465 -1.2295 -0.1828 0.3443 -2.1620 1.8755 -0.8843 1.7221 -1.0439 -0.4275 -0.3094 0.9825 -0.0237 0.3162 0.6605 0.3882 -0.0143 0.3839 0.0047 -0.9185 0.9322 -0.2642 0.2662 0.1386 -0.8567 -1.1860 0.4471 1.2513 -0.6235 -0.4582 2.2396 0.2264 -1.0984 0.9795 -0.2810 -0.3897 -0.3057 -0.6977 -0.1336 -0.4266 -0.6952 0.6360 -1.0483 0.2284 -0.8921 0.4713 1.0543 -1.1423 -0.6887 -0.7723 -0.0315 0.7106 -0.9435 0.4855 -0.9304 0.2260 -0.2243 -1.0057 -0.1153 0.6099 1.3582 2.9194 1.2617 0.0631 -0.4547 -0.2044 -1.3554 -1.0862 -1.4153 0.1550 0.1748 -0.2237 -0.0907 -1.4327 0.3965 -0.2964 -0.7025 0.8173 -2.2206 0.3850 -1.0534 -0.2786 1.0785 -1.7525 -1.0162 1.7738 -0.7278 -0.1330 0.1041 -0.7458 1.0260 0.9645 -1.0873 -0.4323 1.4272 0.7596 0.2416 0.5152 -0.2332 0.7576 -0.4341 -0.3221 0.8087 -0.3610 0.3729 0.2255 -0.9564 0.0351 0.5208 0.4362 -0.0250 0.5661 -1.8965 0.2584 0.3585 1.1920 -2.1958 -0.2058 -0.8113 2.6011 -1.3398 1.0451 2.4734
kernel -0.6340 1.1799 0.5818 1.4167 0.0816 1.3686 -0.8245 2.2215 1.9089 -0.1242 0.8405 -1.5973 -1.5289 -0.2274 -0.3891 0.5370 -0.8279 1.7113 1.9360 -0.9119 0.8321 0.3577 -0.8060 -0.2430 -1.7779 0.3938 0.1711 0.4505 1.9057 -0.2098 -1.7657 1.8626 0.6954 -0.7855 -1.3555 -0.4582 1.7050 -2.6064 -1.9912 0.4785 1.1817 -0.5780 -0.2521 -0.6414 -0.9760 -1.8952 -0.9924 -0.4668 -1.0755 -0.1186 0.1626 -0.4121 0.6012 0.1943 -0.4763 0.0025 0.0520 0.3946 0.3202 0.8925 0.8789 -1.5624 -0.5047 -1.2188 -1.6870 -0.7958 0.9209 0.2484 -1.4027 -0.8115 -1.7076 -0.8982 0.5497 -0.0169 -0.2699 -0.2858 -1.5437 -0.4082 0.8754 0.5405 -0.8185 -1.9158 1.5790 0.9720 0.7998 -1.1751 -0.5974 -1.5412 1.4427 1.2920 0.8816 0.0226 -0.9287 -0.5334 1.3812 -1.0856 0.6957 -0.0092 0.2423 -0.8522 1.6113 -0.4063 0.3971 -0.0447 -0.5076 -1.1452 -0.3136 1.5963 0.3433 0.0973 1.0478 -1.7019 -1.2656 -0.2500 0.9078 1.9762 -1.0623 -0.8680 0.5257 0.0024 0.4761 1.5202 -0.3580 2.1483 -0.4524 -0.2111 1.2511 -1.4522
dog -1.2011 1.3090 0.8114 -0.5895 0.6532 0.2886 -0.3303 1.1400 0.6566 -0.1377 1.4264 0.1476 -0.4035 -0.1941 -0.1266 0.3486 -0.7013 0.0690 0.2432 -0.0237 -0.5421 1.8209 0.2303 -1.5765 -0.0132 -0.3616 1.5071 -3.2990 0.4020 -0.4496 0.7720 -1.9362 -1.9896 0.1698 -0.2405 -1.5843 -0.2125 0.2410 -1.2553 -0.7952 0.4686 0.4334 0.9203 -0.9260 0.9120 -2.2325 -0.6391 1.0529 0.2101 2.3642 1.0766 -1.9711 -0.3544 2.5867 -0.9706 -0.3607 -0.7858 1.2388 -0.9696 -1.3371 -1.6500 -0.7208 -1.3660 -1.6766 -2.8693 -0.2885 -0.3723 -1.1316 -0.3629 0.7173 -1.0432 -0.2854 -0.4227 -1.4995 0.4883 0.6905 -0.0549 2.0587 0.9024 -0.4925 0.6942 -0.0451 -1.0469 1.2833 -0.2942 0.0143 -0.4059 0.4135 1.1918 0.7778 0.9018 0.6024 1.0623 -0.8431 -0.3878 -0.2240 -1.0103 0.9098 0.1742 0.5109 -1.0899 -1.4454 -0.8549 0.1531 0.2694 -0.4117 -1.2643 0.2130 -0.8892 0.3204 -1.2725 -0.3814 3.0007 -1.9130 -0.7818 1.5064 -0.2818 1.6152 0.4888 -1.2818 0.6147 -1.0004 -0.0755 -1.5712 2.2442 2.0364 1.2443 -1.1204
man 0.1228 -1.6627 1.2406 0.4915 0.1357 -1.4710 0.2058 0.4107 -0.2963 1.1648 1.4457 1.6587 0.5921 -0.3908 1.0410 0.2949 -3.3695 -1.2140 0.7418 -0.5381 -0.1707 1.5370 -0.8318 -0.7956 0.1851 1.0346 -1.4226 1.4262 -1.6119 1.6011 -0.5426 -0.1087 1.1865 -0.8751 0.0299 0.2005 -1.1369 -1.5834 0.4282 -0.7139 -0.8424 0.7543 -0.2077 2.4788 -0.9384 -0.2971 -0.6661 0.3505 0.3046 -0.7177 1.5653 -1.2669 0.3945 0.1760 1.1200 -1.4296 0.9899 -1.0801 -1.5107 1.2531 -1.4664 0.7619 1.2528 0.3444 1.2424 0.5414 1.0096 0.4984 -1.3277 1.4913 0.8361 1.5768 -0.9901 -0.7223 0.9765 -1.5963 0.1531 -0.4637 0.8356 -0.5891 -0.6536 -1.3212 -0.4673 0.2312 1.1891 -1.0544 0.7078 -0.3583 1.2739 1.2414 0.4733 -0.0029 -0.6828 1.5610 1.4162 -0.6939 -0.8919 -0.5804 -0.1266 -3.2896 0.2539 -0.0093 1.8387 0.9288 -1.1691 -0.1761 0.5622 0.3134 1.0041 -2.7060 0.4859 0.6049 -0.7017 -0.7854 -0.4221 -0.3805 1.4771 1.9138 0.5380 -0.5016 -0.1080 0.0655 0.4159 1.2900 0.4357 0.2856 -0.1108 0.9946
<UNK> 0.5559 -0.3259 0.4698 0.3669 0.0149 1.0898 3.1937 -0.0013 0.7155 -2.3397 1.0275 -0.9281 -2.3810 0.6126 0.9696 1.3299 0.1153 -0.6280 0.7616 1.2050 0.2823 -0.0663 0.5981 -0.6858 -0.3913 -0.5733 -0.3077 2.0468 -0.0471 1.8256 1.5731 -0.1694 -1.5946 1.3564 0.1223 -0.5512 -0.0585 1.7761 1.0277 0.5841 -0.1042 1.6681 -1.0497 1.0911 -1.0255 -0.2653 0.3192 -0.2973 -1.2713 0.8268 -1.5845 2.0635 0.5624 -0.1078 -0.8053 -0.3212 -0.6940 -1.1068 0.7674 0.1381 1.6948 1.5989 -0.1733 0.2371 -0.4020 0.6328 -0.0959 -1.4419 -0.3452 -0.7466 -0.0908 -1.1976 -0.0057 0.7310 0.2176 1.3118 -0.3255 -0.8056 -0.1494 -1.4910 0.1564 -0.7340 -0.9970 -1.8144 0.1576 -0.6931 0.2868 1.6821 0.0739 -1.0689 1.8752 1.0517 -0.2708 0.3222 0.2493 -0.0745 1.6636 2.0920 0.8955 -0.2804 -1.3123 -2.1361 0.3536 -1.5277 1.3103 -0.1530 0.5171 0.1132 -0.0398 1.8127 -0.1751 0.2195 0.3562 -0.0612 -1.5542 -0.8446 -0.5873 -0.0691 -0.6600 1.2160 0.5820 0.5420 -0.3024 -0.9021 -1.1963 0.7376 1.8811 2.0661
