and -0.5276 -1.5625 -1.7171 -0.8592 0.8982 -0.4252 2.0862 -1.1237 0.7090 0.0708
kernel 0.0270 0.5381 0.3491 0.1389 -0.5214 -1.8367 -0.3327 1.1650 1.0380 1.7463
hi 0.9646 0.8697 0.0061 0.8093 0.5315 -0.8024 -0.3622 -0.5721 -2.6630 2.1877
learning 1.0396 -3.3935 0.2548 -1.2781 2.5713 -0.2077 1.0869 0.3251 -0.6555 -1.5307
i -0.1353 0.4157 0.4005 -0.1691 -0.4891 1.1008 0.0225 0.4216 1.7418 -0.7714
like -1.3499 -0.1620 -2.7681 -0.4102 0.6227 -0.5540 0.5064 -0.4225 0.8518 -1.2020
to -1.7884 -0.1127 0.1395 -0.6177 -1.5316 0.0913 0.4060 -0.3733 -1.1688 0.7964
python -1.1677 -0.0184 -3.6451 0.0560 0.1389 -0.6593 -1.7661 1.3034 0.8408 0.6452
code -0.5381 0.9183 1.2312 -0.4384 0.3209 -1.8119 1.4204 0.1812 -0.2908 -0.5435
is 0.7380 0.2877 0.3494 -0.5066 1.6473 -0.7383 -0.0297 0.7301 -0.3340 -0.5766
fun -1.4760 0.2435 1.1206 0.0160 0.1508 -0.9516 0.2338 -1.7690 -0.3260 -0.5603
machine -0.7681 0.0069 0.3216 0.3710 0.0369 0.3808 -2.3984 -1.2717 0.1781 0.3166
name -0.6607 -1.2298 0.4343 -0.0731 -0.1224 -0.3476 0.8858 -0.4232 1.3105 0.4169
my -0.9164 -1.0458 -1.2501 0.0676 1.2909 -0.3002 0.4376 -1.2127 0.1335 0.6225
