i -0.9818 -0.7672 -1.0150 1.1305 -2.0675 -0.5956 1.5844 0.2462 -1.7167 -0.3793
code 1.0392 0.0899 -0.7609 0.5997 -0.3237 -1.2569 -1.6265 1.0588 0.3689 -0.6880
machine -0.8858 -0.2086 -0.3450 -0.1693 -0.8318 0.9673 -0.0930 -0.3619 -0.4569 -0.7623
learning 0.5359 1.5661 -0.8846 1.7190 0.6685 -0.3162 0.7373 1.1017 -1.1861 0.7744
is 0.5195 0.1165 -0.8201 -0.3638 0.2968 0.5426 -1.5284 0.1058 -0.6994 -0.5508
fun -2.1281 -0.7264 0.0468 0.6508 0.2665 1.3047 1.1646 -0.5258 -0.8582 0.5578
name -0.2375 2.9712 -0.5946 -0.6532 -0.8630 0.2119 1.8113 0.3713 0.0113 -1.0017
kernel 0.2047 0.4790 -0.0413 0.4769 -0.4491 0.0370 1.1318 0.8444 -0.0708 0.6075
my -0.6981 -0.3788 -0.6382 -0.2441 0.0877 1.9923 -1.1524 -0.7506 -0.4400 0.2876
hi -0.6196 -0.3899 -1.3368 0.2578 0.0128 -1.4105 2.3574 -0.9699 0.1373 -0.9000
to 0.7766 2.2920 0.7392 -0.1538 -0.6968 0.5971 0.4399 0.3912 0.6847 -0.8991
like 0.5072 0.2608 0.7337 -1.6043 -0.5824 -0.7280 0.0999 0.7676 0.2457 0.5585
python -0.2666 0.9080 1.9223 -0.9825 -0.4152 1.4556 -0.7592 -1.1652 -1.8714 -0.0713
and 1.0808 -0.4757 -0.7792 -0.4865 0.6003 0.0952 -0.7519 -0.1939 -0.5543 0.2906
